digraph Tree {
node [shape=box, style="filled, rounded", color="black", fontname=helvetica] ;
edge [fontname=helvetica] ;
0 [label="CountVector(the) <= 0.5\ngini = 0.48\nsamples = 2286\nvalue = [916, 1370]", fillcolor="#bddff6"] ;
1 [label="CountVector(hillary) <= 0.5\ngini = 0.45\nsamples = 1913\nvalue = [654, 1259]", fillcolor="#a0d0f3"] ;
0 -> 1 [labeldistance=2.5, labelangle=45, headlabel="True"] ;
2 [label="CountVector(donald) <= 0.5\ngini = 0.429\nsamples = 1813\nvalue = [566, 1247]", fillcolor="#93c9f1"] ;
1 -> 2 ;
3 [label="(...)", fillcolor="#C0C0C0"] ;
2 -> 3 ;
442 [label="(...)", fillcolor="#C0C0C0"] ;
2 -> 442 ;
585 [label="CountVector(clinton) <= 0.5\ngini = 0.211\nsamples = 100\nvalue = [88, 12]", fillcolor="#e99254"] ;
1 -> 585 ;
586 [label="(...)", fillcolor="#C0C0C0"] ;
585 -> 586 ;
587 [label="(...)", fillcolor="#C0C0C0"] ;
585 -> 587 ;
612 [label="CountVector(trumps) <= 0.5\ngini = 0.418\nsamples = 373\nvalue = [262, 111]", fillcolor="#f0b68d"] ;
0 -> 612 [labeldistance=2.5, labelangle=-45, headlabel="False"] ;
613 [label="CountVector(donald) <= 0.5\ngini = 0.397\nsamples = 359\nvalue = [261, 98]", fillcolor="#efb083"] ;
612 -> 613 ;
614 [label="(...)", fillcolor="#C0C0C0"] ;
613 -> 614 ;
729 [label="(...)", fillcolor="#C0C0C0"] ;
613 -> 729 ;
778 [label="CountVector(energy) <= 0.5\ngini = 0.133\nsamples = 14\nvalue = [1, 13]", fillcolor="#48a5e7"] ;
612 -> 778 ;
779 [label="(...)", fillcolor="#C0C0C0"] ;
778 -> 779 ;
780 [label="(...)", fillcolor="#C0C0C0"] ;
778 -> 780 ;
}